{"inputFeatures":["lumaMean","lumaStd","satMean","shadowClip","highlightClip","colorCast"],"outputs":["brightnessDelta_tanh","contrastFactorMinus1_tanh","saturationFactorMinus1_tanh"],"w1":[0.00882924534380436,0.4354793429374695,-0.5520229935646057,-0.1344243586063385,-0.6291379332542419,-0.13141997158527374,0.42740947008132935,-0.26045769453048706,0.07376493513584137,-0.267871618270874,0.11522886902093887,-0.01795125938951969,-2.1180155277252197,-0.7811725735664368,0.4880349040031433,1.8124462366104126,-0.014255802147090435,-0.060142505913972855,0.9886927008628845,-0.40975624322891235,1.4130510091781616,0.08571553975343704,-0.511536180973053,0.9877498149871826,-1.1210755109786987,-0.48971742391586304,0.030042335391044617,-0.3092396557331085,0.39533206820487976,-0.009705670177936554,0.7481443881988525,-0.12904618680477142,0.11417891085147858,0.005355103872716427,-0.33622416853904724,0.621882438659668,0.15200114250183105,-6.273219108581543,-0.7728907465934753,0.23323585093021393,-0.07587803900241852,-0.4393750727176666,-0.35663655400276184,-0.012257310561835766,1.0094795227050781,-0.39571529626846313,-0.2224862426519394,-0.023238593712449074,-6.0151262283325195,0.06733480095863342,0.5817283987998962,0.08024388551712036,-0.053555697202682495,0.08609095215797424,-0.10431656241416931,0.28795719146728516,0.1741381287574768,0.030667267739772797,0.009136310778558254,0.04727847874164581,0.022386040538549423,0.01681383140385151,0.09805621951818466,-0.06724367290735245,-0.3892456889152527,-0.36584529280662537,0.22620144486427307,-0.5146169066429138,-0.38389021158218384,-0.311212420463562,-0.18497344851493835,0.06263294070959091],"b1":[0.4038349390029907,0.1049371063709259,-0.10142449289560318,-0.21208396553993225,0,-0.08914437890052795,-0.21876195073127747,0,-0.1550743281841278,0,-0.11778754740953445,-0.11309798806905746],"w2":[0.05449739843606949,1.7332161664962769,0.4130008816719055,-0.47724324464797974,0.8289414048194885,0.0782078430056572,-0.1971469521522522,0.08153235167264938,-0.5617095232009888,-0.12054559588432312,1.2165288925170898,0.15132223069667816,-0.17538519203662872,0.5255632996559143,0.04491835832595825,-0.08027338236570358,0.470091313123703,-0.5747122168540955,-0.47919753193855286,-0.47306373715400696,-0.03441404178738594,0.09984675794839859,-0.48685595393180847,-0.1993284970521927,0.06967442482709885,-0.626412034034729,-0.03637176752090454,0.0222601480782032,0.1818501204252243,0.2558671534061432,0.20350347459316254,-0.09779246151447296,0.142876997590065,0.37758150696754456,-0.3019057810306549,-0.17878203094005585],"b2":[0.10231943428516388,0.05043679103255272,0.0014750295085832477],"shape":{"input":6,"hidden":12,"output":3},"trainedOn":"Kodak24 reference photos, self-supervised via synthetic degradation","trainedAt":"2026-07-08T08:27:42.403Z"}